{"w1":[[0.08757991163808512,0.050012792027506914,0.08604167405207194,0.0275516459404625,0.06666519043121702,-0.011564015746671721,-0.045041689367571074,0.027670634867158234,-0.006617784319118816,-0.029410619020396253,0.07863764527394776,0.07631604608641357,0.029369268412184735,0.08789907230611613,0.05415532196660622,-0.03922420243560381,0.006494787089892304,-0.0091923914658784,-0.03375905327414708,-0.01936132803464101,-0.0759642359207236,0.03459376966549493,0.03702900203172327,-0.07021629439990953],[0.02504736825885026,0.08017192017370242,-0.03212734128777055,-0.031680635018527165,-0.00866239396113451,0.07600167098978947,0.006936073947984678,0.057014508968647765,0.08165938054440675,-0.015023870173033929,0.016902977910230474,0.003407640961123226,-0.027295152108787524,0.03150324680345809,0.04623354874237151,-0.07383120115900557,0.08295692065003224,0.013285465820684753,-0.06244421216560885,0.05811976054852133,-0.030677567493905183,0.06885848391272392,-0.08807700933564339,0.09001502825563015],[-0.028238418172784815,-0.004678575148639202,0.09565457273264275,-0.06898460874293494,0.019734499487880558,0.04750617538925711,-0.0466467214908632,0.058600447436012004,0.019537369717959788,0.026312176564755513,0.07495973963505992,0.08236421459730131,-0.022141657174221188,-0.08730201003566068,-0.07343827733755733,-0.05816619853845715,-0.08096142205051825,0.012508142609335124,-0.08558501721629537,-0.09170383155969436,0.022115842668992275,0.09709171457133,0.08566115706810243,0.005343842533269652],[0.03942340209815004,-0.08059133020807259,-0.07610197959681685,0.056192284003882764,-0.09198511787055196,-0.0025990184328086308,-0.06289694613021243,-0.061623887859102666,-0.09191070950289526,0.051713812054228175,-0.011286126056038959,-0.06457156925732638,-0.09495961100805139,0.08300040126632577,-0.06194176906706011,0.04690325734905479,0.027540023430838445,0.07131884294760818,-0.028312618341010176,0.02791704746384402,-0.005067043574432578,-0.09569216656819407,-0.0449701499955532,-0.07104010537852692],[-0.02860017571806242,0.05529536054064685,-0.09796286502784668,0.044350342002950544,0.08976895581134939,0.010925494813206954,-0.01114258868990503,-0.002098129090313511,-0.09459997698824679,-0.06841480987971056,-0.08272951207961787,0.003514499542755248,0.0393098099360038,0.08670314058377257,0.025394514633934717,0.028994819221066892,-0.07023852213904985,0.02209914531499027,0.019192789734524124,0.030350392731974984,-0.05379816455394602,-0.0837084288867247,-0.06665970502053238,0.011955262886826384],[-0.0404823458700552,-0.033519619059007286,0.018743159385542274,0.06984556682469945,0.09044065126866965,0.045768856477498454,-0.01531401893423287,0.04602161734875679,0.05559010798797592,0.014443915276413491,-0.017422029045195256,-0.07539055162746351,-0.015027790035360186,-0.08174681335977718,0.08023250355392811,0.005827547016159354,-0.05001602349574972,0.08216707622001335,0.016363703820974546,-0.025049886309945688,-0.04528471340599845,0.06770135471730288,-0.09580291721382604,0.015554136504219801]],"b1":[0,0,0,0,0,0,0,0,0,0,0,0,0,0,0,0,0,0,0,0,0,0,0,0],"w2":[[0.08682913083903601,0.0013392561132345715,0.05411414563050171,0.041485989469912526,0.01846288116989045,0.010716419924430912,-0.027954716353201944,0.0439963272813442,0.013596160145953592,-0.08603292368555071,-0.054290590989073656,0.04459022621174738,0.0249717384941244,0.0014590047846276544,-0.05075513658761075,0.03177651568305839,0.06484101077602189,0.015319749438458624,0.06859578158970148,0.008232608420073811,0.05948926648850458,-0.07246464578100759,0.029225257047170994,-0.014028652837925468],[0.03278992602777284,0.05902794264146291,0.010324692858366832,-0.02660719084477381,0.06426998936610356,-0.08959632980643435,-0.0076247180859023295,-0.0614996890339022,0.016930141764232243,-0.00945606224740278,-0.006809406855433492,-0.09975704813345615,-0.03619900866819159,0.06152210845720263,-0.08253750286084478,-0.06248852557948106,0.08885236287071571,0.03886428322565663,0.08651030676667631,-0.04844649860569566,-0.05418628121252292,0.03928305492237255,-0.06243006205934035,-0.05278716189904662],[-0.006746004184429236,-0.026725891306456737,0.08796686989495878,-0.00790730327305915,-0.008700544630710766,0.0054308726165741145,0.07001393577259127,-0.03313537105915665,0.004839171600002495,0.09971397852715211,-0.05511698816534272,0.05874576049507174,0.014053356870737277,0.04789703553933894,-0.08541005806417346,-0.05439590991027399,0.05391855016894978,0.04687888924262604,-0.016018846805203865,-0.08910171250938292,0.046321632346985164,-0.09772434780552292,0.020983519442791712,0.09143984963537963],[0.06288378164653732,0.0004214414726364524,0.03160126184705314,0.026437530262762493,0.07713681552499199,-0.03562470485972406,0.0726877047559785,-0.01973603512480107,0.0633378490878691,0.0503506802918042,0.056179911698800405,-0.09053753371538097,-0.0002508717240911895,0.06753462182753542,0.08273915502686191,-0.029453711464167823,-0.07502343788511862,0.05689469036392611,0.04579478909831025,0.051546127342546544,0.04689728909392704,0.03093327061548215,0.058888479321626025,0.022244656226347595],[0.07431586279981661,0.050704892055421724,0.05184073152905069,-0.059785313956333644,0.0836460457514879,0.02910355924171862,-0.04372225048602199,-0.003779220579524581,-0.04118730622120814,0.06292897928791863,0.09074137846116356,-0.0053804588609547566,-0.04947757587347754,-0.05435567728323183,-0.08777568760856039,-0.0030076097056070533,0.018661111859762464,0.08862043995395805,0.012587058879101429,-0.026338973396384843,0.09361903877886565,-0.05647340066634095,-0.06257488127460605,0.09920281280519236],[-0.09000634619653464,0.014325149542860766,0.06017046133638457,-0.0008847566125204376,-0.05758264233582031,0.0482686092604713,-0.03791274996402749,-0.06783095441610172,0.07027616904637199,0.09664854717086246,0.061092054698500015,0.04052358377860099,-0.07065106737569588,-0.00025281640736907196,0.07782480750544471,0.08079859401190784,-0.03025651989645295,-0.04410085287023922,-0.011987240595893803,-0.06214788213264393,-0.011897906299631195,-0.0957269099360342,0.036511411055173915,-0.0957078945498464],[0.05919548192483054,-0.06255372535167175,0.08420655250117909,-0.07087469771341415,-0.03374811175063923,-0.0070017803663580125,-0.030203739303087576,0.09173358079212188,-0.09460213860021559,-0.03585750770615247,-0.010548749092613982,-0.07425110042494439,0.04195430723700616,-0.009565144365736855,-0.013828481649470065,-0.05105574791298213,-0.026192248822264813,-0.018031099730324615,-0.000498272489687146,0.091647671908579,0.004877447605556348,0.00609456003575852,-0.08904493038607075,0.07996346622513589],[-0.08952802956264752,-0.0958847199959405,-0.05026808709460806,-0.07447985688868844,-0.05029543731797131,0.04284538520943432,0.05324679137801375,-0.034838462980615464,-0.05151692173334728,0.07347638643787913,0.05156465586114806,0.00809806823804149,-0.0662980344400596,0.0262741117526748,-0.05302449490546018,0.032276293919483445,-0.002503508590081721,0.0699630054704343,-0.09335545260531806,0.03401238538286083,-0.04826904803186745,0.08889659256598686,-0.08657347037649082,-0.03174968973527141],[0.003685589151083385,0.08650785804313166,-0.07889732204509586,0.043376344016699125,-0.026740084816963758,-0.016596956968056367,0.046426341471077215,0.001411100199855686,0.03413720123462913,0.023316546056026913,0.093517991548205,-0.006196309330118527,-0.04238421461900488,-0.09507128572330886,0.04526874519902693,0.02820394049413069,-0.023984192717363823,0.009499679766767313,-0.01212769599960431,-0.03661055753575369,-0.011039113848050078,0.004308409842452093,-0.08713756291021418,-0.015472160564977758],[0.027617349154717197,0.07488071613679781,-0.04958137090035613,-0.046956293432150714,-0.07516989637071161,-0.015726528281846064,-0.04677653253481598,0.09997961400188857,-0.09309606381019982,0.08303873792384825,-0.07508512529027551,-0.0856386434317841,0.07772835241838932,0.0017672733309173766,0.021663251195626884,0.058725388755517666,0.04464145384085258,-0.0776629231917315,-0.09051173397375455,-0.03094028282349541,-0.025775578960218135,0.068119946811252,-0.09534776257385025,0.06378380806910042],[-0.07259738183846015,-0.0541929229383086,0.029832614769026516,0.09397192713390065,-0.029149922236574158,0.061123139534826065,-0.09361984895859357,-0.016908289861050044,0.09229712289609404,0.076064538152639,0.0994196913406202,0.03199994947843074,0.06453260681335088,-0.000419869962580921,0.00760842890621774,0.027930043791332737,-0.021536991603969186,0.06566408340743529,-0.09651264343621338,-0.012435635724189403,0.09184067208081259,0.08166797040872428,-0.008191710367478608,-0.07858711545656703],[-0.0940374207103212,-0.010926733476743375,-0.04329080042234068,0.06758388714097441,0.055930810572747125,-0.034653199990631656,0.051539539380122484,0.08816128382535093,-0.054769773277389945,-0.09514050597175056,-0.0033347145099597297,-0.016451625664874375,-0.09376622074524273,0.06023398309571601,0.02715347524772982,-0.06125340597061551,0.03463031280210574,0.058965971989955096,-0.04718571866986592,0.06840238727572745,-0.025544127714057605,0.04239319328185673,-0.05525455577309244,0.052317700802457706],[-0.0008516817709344204,-0.05996762628241401,0.015826043220717678,-0.07878774474220812,-0.04677741939061706,0.03862465072683299,0.06146159201670215,-0.017031033602819726,0.035308860160148114,-0.03933136402394884,0.08267531616049512,0.030006048410685354,-0.09674574165061828,-0.05430473191011154,0.04976057842554982,0.09694700897111622,0.059124688998198865,-0.08689885616891616,-0.01118486266061361,0.016568715551828525,0.03156943409809776,-0.02038090286484226,0.05658042664527288,-0.031622564566552214],[0.02750553823760099,0.056059468449284416,0.005881371614804107,-0.045198982941801275,0.06636509277639843,0.05917507044930867,-0.04686449491928351,0.046120460141913594,-0.010694539965817373,-0.09559017177202045,-0.08091375716303102,-0.0075393769011772305,-0.01612423331493909,0.044150303565858195,-0.006085377998438515,0.04594992133173331,-0.09723616877392745,-0.05942585591976695,0.040256170511755396,0.048895042778834996,-0.02595720222098584,0.09217020639871243,-0.09912628234772927,-0.00947134808893535],[0.028531003483138112,0.002460584126577056,0.07721093661724895,-0.049992423740399874,0.09534989733811014,-0.005075325133199929,0.09371602709062829,0.08461217258491396,-0.06942816912634896,0.020431150988826224,0.0956472983215392,0.09652972922428435,-0.004417598324678168,-0.03662009732341616,-0.03126071832758308,-0.006341877207850996,0.01366497076912676,-0.08112825871711407,-0.001030139290858087,0.02024620252220495,0.0932392605637716,-0.0824257760872327,-0.07046436020252088,-0.013720457809879738],[0.08809868254139763,-0.03362411777535333,0.016537349281668917,0.031148893093074836,0.06025808783142236,0.002215068239935142,-0.0815774106428912,0.07915877176643424,-0.012545990245775851,0.0069927278692723804,0.016640973635268758,-0.010575988271017217,0.07115175213746591,0.05489475680795175,0.07649714736078875,-0.08140887664158228,-0.011032063935680875,0.08364456677066454,0.012963975094840263,-0.037789833288974145,-0.042966995602866036,0.05108529058268049,0.07891260796293875,0.05403412142219835],[0.09527587404834414,0.0032365043526920434,0.05854563416778355,-0.07903910646926907,0.00787958370213851,0.08102652426434312,-0.056699885989489655,0.012788524409342014,-0.08260767866861059,-0.08045021811709907,-0.038945604710491626,0.010785057237557183,-0.0492040056620235,0.056432723699546244,0.06750140453087458,-0.09742326835040854,-0.06782672708034573,-0.0886022200455928,-0.08176867454974535,0.024066877687462657,-0.03582471908169571,-0.09359091044507509,-0.08319730798995983,0.06400562660345624],[-0.08628373495258956,0.06036000252936674,0.023160870923123994,-0.07384899834353383,-0.08901608996633295,-0.01610101952580098,-0.04843036752103518,-0.08478536977226261,-0.09479742986612966,0.0577988223549086,-0.03583674637550309,-0.05559687187169922,-0.0740165344809448,-0.03205796495599755,0.06305139210092817,-0.052189700586840165,-0.016402647042695714,0.09250461825524958,0.09084091315834034,0.059215369120850875,0.0603483828858456,-0.07080226637671182,0.0514476944538885,0.08800001146809636],[0.025707166088186573,0.037976003384343815,-0.023902496532011666,0.04637731712773527,0.015777609412903584,0.061806391030022584,-0.08702604519905631,-0.035803363608928246,-0.025562577159856062,0.037888980002917017,-0.07271439342019106,-0.034575552919085206,-0.09368641563337057,-0.007424603535707591,-0.022575192617770995,0.0007105872542466363,-0.03403214400959012,0.02868579478093644,0.07994560541422549,0.06356340330568652,-0.07338405198439574,-0.03097399371414611,-0.09916483820537521,0.09942058690171177],[0.029215572484538016,0.020598970642973558,-0.09220326624601574,-0.045899830605912476,0.08916403364944323,-0.07586976225252869,0.06405516172407219,-0.07840917923414009,-0.07767173508185131,-0.0007235330106221821,-0.047489191455075554,-0.07460570917772387,-0.09054986056483563,0.04717059356254827,-0.07784210796727159,0.025873755349272026,-0.0798088592306711,0.019255946747953417,-0.028557023588597602,0.07739260637658407,-0.0531238638554459,-0.06856628695446362,0.04548788527175113,-0.01272108242784109],[0.07731114204303599,0.015719874412213078,-0.039142056284723205,-0.019396647112389642,-0.05853712921352743,-0.020356348901963986,-0.031072103628284303,-0.08431865752648515,-0.06287938951726708,-0.05826770671845982,-0.07654163053463528,0.0316318535823428,-0.026818467786589015,0.07958570312750621,-0.01920257743624039,0.0440728072990291,0.05473961865527907,0.0009148928189340461,-0.017970667328792905,0.04694209106316216,-0.08502779377436571,-0.034327834405835866,-0.029790876285342743,0.05573284083324123],[-0.02756725341475104,-0.024681633969877104,-0.031169947196182143,-0.06054204385341644,0.09022678606838783,0.028852624704207436,0.029053330853767878,0.059238022631747794,-0.007756983348148033,0.0875345272523676,0.040103700237522216,-0.017097337317442743,0.050596664017378695,-0.017197140261022995,0.04649472836673091,0.04404131693206567,-0.05327002180637477,0.09751536939231917,0.03009488620461004,0.07223324768727316,0.09559285593143291,0.03232744464747914,0.041271827569484276,-0.07008276325331796],[-0.07404884884258078,-0.07944643301651036,-0.03252349495819018,-0.07004434930490427,0.08724251136474834,0.02118484822578133,-0.08744690681705253,0.004975320344731582,0.04488197396027671,-0.09137660668822373,-0.043598158433985894,-0.03000531720365067,0.029564733906890323,0.003924553248625798,0.006984899371016165,0.0026738817406880555,0.04023668236214656,-0.05537426260517142,-0.005476668568127452,0.07762869449994309,0.06384125780913466,0.007530102108933762,-0.06470684852363891,0.009239111499638769],[-0.0031714191307036232,-0.0025721320611937076,0.0778681113501023,0.018893048128613782,-0.04495262760555823,0.009741757954771835,-0.0023100439914760795,0.09566855810399785,-0.04807327760617391,0.07169856561578863,-0.03608667740012371,0.003276174648622357,-0.0590865549178321,-0.07731781458880503,-0.07689468039453862,0.040123697859193425,0.07321766444981431,-0.023089527897670714,0.09675326531044215,-0.09667030180871286,0.09598304200759142,-0.06913513642034153,0.07360794379821609,0.007978254044782446]],"b2":[0,0,0,0,0,0,0,0,0,0,0,0,0,0,0,0,0,0,0,0,0,0,0,0],"w3":[[0.04530257450322341,0.026105703155298556,-0.045492936849097866,0.013813006600653611],[1.5962563904462532,0.3502694931804871,0.12630028371817517,0.21745867055607235],[9.717150429345194,1.0319009003015565,0.9705705136710461,0.7425887133632149],[-0.08390177829552814,0.0730584452473951,-0.09071999796087354,0.08957364125366252],[13.195770594206156,0.40675089074364845,0.47518960226110163,0.026866831141636113],[4.189254399995868,0.8147107169990112,0.9855915730123038,0.5207505021286127],[-1.6396463729232071,0.42389189778799446,0.33886980350984053,0.1806344725471632],[-0.0767413210327582,-0.061910959292440185,0.08510660371959725,-0.055471332338652264],[0.022225684753854887,-0.015393532781278134,-0.03970264557953512,0.029905038937623227],[3.5643301853653697,3.730116566797585,4.255733973426824,3.134694836973066],[9.896643971106357,2.5701847104507207,2.9284303922541453,1.7504351092624906],[-0.7368761718261796,0.03856863711737507,0.1365928700549686,0.06664091953463618],[-0.08131228045224095,0.04594237346311025,0.08103613200917184,-0.026456842438916037],[-0.044469613811163405,-0.1912813880135779,-0.2200861776784821,0.03616889877761751],[-7.421569491029348,0.11593907562986346,-0.1694744002686569,0.30957054175450704],[-3.1818429358862876,0.8056989997039821,0.7201574723191024,0.5802520319805238],[-0.039946719597235655,-0.09134664007525883,0.09775301324065581,0.03827326236565634],[13.433738282653367,2.3229513622428906,2.6280367921194614,1.9763803561155926],[2.151044834208531,0.42420449000049926,0.09217280080762989,0.34237415905984403],[4.6513903735167075,0.03453771847950493,-0.050160787048362174,0.07249071262562343],[10.712483725541338,2.5106483362026917,2.7181936601240175,1.8695284026686398],[-0.07734340604552549,-0.10351920460463408,-0.02114395503522735,-0.07428824151255181],[-2.011746777592519,0.13882945783889503,0.033732114848937914,0.040443400601604645],[3.400580373070964,0.25001843007720453,0.07712058934763569,0.268932529105452]],"b3":[38.229858088128374,37.471424801159515,36.65568914263083,37.020107359955894],"eps":0.00998645168764533,"tCount":1}